FANN_FLO_2.1
num_layers=3
learning_rate=0.700000
connection_rate=1.000000
network_type=0
learning_momentum=0.000000
training_algorithm=2
train_error_function=1
train_stop_function=0
cascade_output_change_fraction=0.010000
quickprop_decay=-0.000100
quickprop_mu=1.750000
rprop_increase_factor=1.200000
rprop_decrease_factor=0.500000
rprop_delta_min=0.000000
rprop_delta_max=50.000000
rprop_delta_zero=0.100000
cascade_output_stagnation_epochs=12
cascade_candidate_change_fraction=0.010000
cascade_candidate_stagnation_epochs=12
cascade_max_out_epochs=150
cascade_max_cand_epochs=150
cascade_num_candidate_groups=2
bit_fail_limit=3.49999994039535522461e-01
cascade_candidate_limit=1.00000000000000000000e+03
cascade_weight_multiplier=4.00000005960464477539e-01
cascade_activation_functions_count=10
cascade_activation_functions=3 5 7 8 10 11 14 15 16 17 
cascade_activation_steepnesses_count=4
cascade_activation_steepnesses=2.50000000000000000000e-01 5.00000000000000000000e-01 7.50000000000000000000e-01 1.00000000000000000000e+00 
layer_sizes=10 10 2 
scale_included=0
neurons (num_inputs, activation_function, activation_steepness)=(0, 0, 0.00000000000000000000e+00) (0, 0, 0.00000000000000000000e+00) (0, 0, 0.00000000000000000000e+00) (0, 0, 0.00000000000000000000e+00) (0, 0, 0.00000000000000000000e+00) (0, 0, 0.00000000000000000000e+00) (0, 0, 0.00000000000000000000e+00) (0, 0, 0.00000000000000000000e+00) (0, 0, 0.00000000000000000000e+00) (0, 0, 0.00000000000000000000e+00) (10, 0, 5.00000000000000000000e-01) (10, 0, 5.00000000000000000000e-01) (10, 0, 5.00000000000000000000e-01) (10, 0, 5.00000000000000000000e-01) (10, 0, 5.00000000000000000000e-01) (10, 0, 5.00000000000000000000e-01) (10, 0, 5.00000000000000000000e-01) (10, 0, 5.00000000000000000000e-01) (10, 0, 5.00000000000000000000e-01) (0, 0, 0.00000000000000000000e+00) (10, 4, 5.00000000000000000000e-01) (0, 0, 0.00000000000000000000e+00) 
connections (connected_to_neuron, weight)=(0, 9.17181372642517089844e-01) (1, 8.77579569816589355469e-01) (2, 1.83100414276123046875e+00) (3, 1.99662566184997558594e+00) (4, 1.84297895431518554688e+00) (5, 1.86080825328826904297e+00) (6, 1.99190258979797363281e+00) (7, 1.93605566024780273438e+00) (8, 1.97993922233581542969e+00) (9, 9.10971820354461669922e-01) (0, 7.96219348907470703125e-01) (1, 7.83228993415832519531e-01) (2, 1.91328740119934082031e+00) (3, 1.97023975849151611328e+00) (4, 1.95875716209411621094e+00) (5, 1.92367744445800781250e+00) (6, 1.87729072570800781250e+00) (7, 1.86845386028289794922e+00) (8, 1.87588238716125488281e+00) (9, 9.01969611644744873047e-01) (0, 5.96530735492706298828e-01) (1, 5.70278942584991455078e-01) (2, 1.86656153202056884766e+00) (3, 1.94016647338867187500e+00) (4, 1.91996812820434570312e+00) (5, 1.91008019447326660156e+00) (6, 1.96890187263488769531e+00) (7, 1.81636691093444824219e+00) (8, 1.90616989135742187500e+00) (9, 5.64446330070495605469e-01) (0, 5.85332334041595458984e-01) (1, 6.38895273208618164062e-01) (2, 1.95489132404327392578e+00) (3, 1.85508847236633300781e+00) (4, 1.87427282333374023438e+00) (5, 1.98796153068542480469e+00) (6, 1.90598797798156738281e+00) (7, 1.85626673698425292969e+00) (8, 1.91410839557647705078e+00) (9, 6.27357661724090576172e-01) (0, -5.51737904548645019531e-01) (1, -4.08648729324340820312e-01) (2, 1.92345213890075683594e+00) (3, 1.93482184410095214844e+00) (4, 1.93486344814300537109e+00) (5, 1.87230038642883300781e+00) (6, 1.84859049320220947266e+00) (7, 2.00224542617797851562e+00) (8, 1.93084549903869628906e+00) (9, -1.18525350093841552734e+00) (0, -4.14761543273925781250e-01) (1, -4.17052984237670898438e-01) (2, 1.92359495162963867188e+00) (3, 1.82507228851318359375e+00) (4, 1.89638590812683105469e+00) (5, 1.83365428447723388672e+00) (6, 1.92524385452270507812e+00) (7, 1.85537886619567871094e+00) (8, 1.84011244773864746094e+00) (9, -1.27831268310546875000e+00) (0, 6.09916448593139648438e-01) (1, 6.15535974502563476562e-01) (2, 1.89915215969085693359e+00) (3, 2.00355958938598632812e+00) (4, 1.90937638282775878906e+00) (5, 1.96351623535156250000e+00) (6, 1.98161244392395019531e+00) (7, 2.00545549392700195312e+00) (8, 2.00987410545349121094e+00) (9, 6.37151360511779785156e-01) (0, 7.97451734542846679688e-01) (1, 7.57295012474060058594e-01) (2, 1.85043573379516601562e+00) (3, 1.98510849475860595703e+00) (4, 1.95632147789001464844e+00) (5, 1.97539043426513671875e+00) (6, 1.84750008583068847656e+00) (7, 1.99500322341918945312e+00) (8, 1.96772694587707519531e+00) (9, 8.94323289394378662109e-01) (0, -4.83522653579711914062e-01) (1, -4.56943273544311523438e-01) (2, 1.92465615272521972656e+00) (3, 1.81334459781646728516e+00) (4, 1.94140136241912841797e+00) (5, 1.81113314628601074219e+00) (6, 1.83709001541137695312e+00) (7, 1.85673642158508300781e+00) (8, 1.85660338401794433594e+00) (9, -1.23252391815185546875e+00) (10, 1.03421902656555175781e+00) (11, 6.56610965728759765625e-01) (12, 8.47468137741088867188e-01) (13, 8.83462309837341308594e-01) (14, -1.20089483261108398438e+00) (15, -1.27876830101013183594e+00) (16, 8.37069749832153320312e-01) (17, 6.21965587139129638672e-01) (18, -1.28322148323059082031e+00) (19, 1.91114854812622070312e+00) 
