FANN_FLO_2.1
num_layers=3
learning_rate=0.700000
connection_rate=1.000000
network_type=0
learning_momentum=0.000000
training_algorithm=2
train_error_function=1
train_stop_function=0
cascade_output_change_fraction=0.010000
quickprop_decay=-0.000100
quickprop_mu=1.750000
rprop_increase_factor=1.200000
rprop_decrease_factor=0.500000
rprop_delta_min=0.000000
rprop_delta_max=50.000000
rprop_delta_zero=0.100000
cascade_output_stagnation_epochs=12
cascade_candidate_change_fraction=0.010000
cascade_candidate_stagnation_epochs=12
cascade_max_out_epochs=150
cascade_max_cand_epochs=150
cascade_num_candidate_groups=2
bit_fail_limit=3.49999994039535522461e-01
cascade_candidate_limit=1.00000000000000000000e+03
cascade_weight_multiplier=4.00000005960464477539e-01
cascade_activation_functions_count=10
cascade_activation_functions=3 5 7 8 10 11 14 15 16 17 
cascade_activation_steepnesses_count=4
cascade_activation_steepnesses=2.50000000000000000000e-01 5.00000000000000000000e-01 7.50000000000000000000e-01 1.00000000000000000000e+00 
layer_sizes=10 10 2 
scale_included=0
neurons (num_inputs, activation_function, activation_steepness)=(0, 0, 0.00000000000000000000e+00) (0, 0, 0.00000000000000000000e+00) (0, 0, 0.00000000000000000000e+00) (0, 0, 0.00000000000000000000e+00) (0, 0, 0.00000000000000000000e+00) (0, 0, 0.00000000000000000000e+00) (0, 0, 0.00000000000000000000e+00) (0, 0, 0.00000000000000000000e+00) (0, 0, 0.00000000000000000000e+00) (0, 0, 0.00000000000000000000e+00) (10, 0, 5.00000000000000000000e-01) (10, 0, 5.00000000000000000000e-01) (10, 0, 5.00000000000000000000e-01) (10, 0, 5.00000000000000000000e-01) (10, 0, 5.00000000000000000000e-01) (10, 0, 5.00000000000000000000e-01) (10, 0, 5.00000000000000000000e-01) (10, 0, 5.00000000000000000000e-01) (10, 0, 5.00000000000000000000e-01) (0, 0, 0.00000000000000000000e+00) (10, 4, 5.00000000000000000000e-01) (0, 0, 0.00000000000000000000e+00) 
connections (connected_to_neuron, weight)=(0, 1.63711011409759521484e+00) (1, 1.53215038776397705078e+00) (2, 1.56270635128021240234e+00) (3, 1.46533477306365966797e+00) (4, 1.54218566417694091797e+00) (5, 1.58135247230529785156e+00) (6, 1.48865151405334472656e+00) (7, 1.49748170375823974609e+00) (8, 1.58173620700836181641e+00) (9, 1.57371294498443603516e+00) (0, 5.52497982978820800781e-01) (1, 4.27184551954269409180e-01) (2, 1.48060500621795654297e+00) (3, 1.59933447837829589844e+00) (4, 1.64101529121398925781e+00) (5, 1.53557777404785156250e+00) (6, 1.51290965080261230469e+00) (7, 1.48913013935089111328e+00) (8, 1.61590421199798583984e+00) (9, 4.63102281093597412109e-01) (0, -8.24701905250549316406e-01) (1, -2.26890176534652709961e-01) (2, 1.60517060756683349609e+00) (3, 1.64766240119934082031e+00) (4, 1.51534938812255859375e+00) (5, 1.59394752979278564453e+00) (6, 1.55296289920806884766e+00) (7, 1.61595523357391357422e+00) (8, 1.48888361454010009766e+00) (9, -1.57168638706207275391e+00) (0, 2.25747674703598022461e-01) (1, 2.27424100041389465332e-01) (2, 1.61037278175354003906e+00) (3, 1.58720588684082031250e+00) (4, 1.49151086807250976562e+00) (5, 1.50264954566955566406e+00) (6, 1.51864969730377197266e+00) (7, 1.53025352954864501953e+00) (8, 1.55022251605987548828e+00) (9, 2.01816245913505554199e-01) (0, -9.29123401641845703125e-01) (1, -2.59058982133865356445e-01) (2, 1.50186622142791748047e+00) (3, 1.48475396633148193359e+00) (4, 1.47635090351104736328e+00) (5, 1.49297273159027099609e+00) (6, 1.57042300701141357422e+00) (7, 1.53935182094573974609e+00) (8, 1.53219413757324218750e+00) (9, -1.56339907646179199219e+00) (0, 5.52545309066772460938e-01) (1, 5.66651046276092529297e-01) (2, 1.64560377597808837891e+00) (3, 1.58192062377929687500e+00) (4, 1.63851821422576904297e+00) (5, 1.51104438304901123047e+00) (6, 1.52595937252044677734e+00) (7, 1.54157233238220214844e+00) (8, 1.47709071636199951172e+00) (9, 4.90820646286010742188e-01) (0, 1.61979460716247558594e+00) (1, 1.50159037113189697266e+00) (2, 1.59111022949218750000e+00) (3, 1.58025860786437988281e+00) (4, 1.63888752460479736328e+00) (5, 1.63271224498748779297e+00) (6, 1.63299942016601562500e+00) (7, 1.50762832164764404297e+00) (8, 1.51305711269378662109e+00) (9, 1.53331315517425537109e+00) (0, 6.74083113670349121094e-01) (1, 6.83092594146728515625e-01) (2, 1.61032950878143310547e+00) (3, 1.56015408039093017578e+00) (4, 1.55205130577087402344e+00) (5, 1.63677179813385009766e+00) (6, 1.60321807861328125000e+00) (7, 1.47256553173065185547e+00) (8, 1.52621471881866455078e+00) (9, 6.51389956474304199219e-01) (0, 4.84961688518524169922e-01) (1, 4.28851336240768432617e-01) (2, 1.47635924816131591797e+00) (3, 1.55477011203765869141e+00) (4, 1.63497674465179443359e+00) (5, 1.46496856212615966797e+00) (6, 1.61590564250946044922e+00) (7, 1.51102721691131591797e+00) (8, 1.55663216114044189453e+00) (9, 5.68974256515502929688e-01) (10, 1.62605249881744384766e+00) (11, 2.77857244014739990234e-01) (12, -1.60504829883575439453e+00) (13, 4.93140548467636108398e-01) (14, -1.64294970035552978516e+00) (15, 2.35087350010871887207e-01) (16, 1.55005753040313720703e+00) (17, 5.65845012664794921875e-01) (18, 2.92806923389434814453e-01) (19, 1.61320579051971435547e+00) 
