FANN_FLO_2.1
num_layers=3
learning_rate=0.700000
connection_rate=1.000000
network_type=0
learning_momentum=0.000000
training_algorithm=2
train_error_function=1
train_stop_function=0
cascade_output_change_fraction=0.010000
quickprop_decay=-0.000100
quickprop_mu=1.750000
rprop_increase_factor=1.200000
rprop_decrease_factor=0.500000
rprop_delta_min=0.000000
rprop_delta_max=50.000000
rprop_delta_zero=0.100000
cascade_output_stagnation_epochs=12
cascade_candidate_change_fraction=0.010000
cascade_candidate_stagnation_epochs=12
cascade_max_out_epochs=150
cascade_max_cand_epochs=150
cascade_num_candidate_groups=2
bit_fail_limit=3.49999994039535522461e-01
cascade_candidate_limit=1.00000000000000000000e+03
cascade_weight_multiplier=4.00000005960464477539e-01
cascade_activation_functions_count=10
cascade_activation_functions=3 5 7 8 10 11 14 15 16 17 
cascade_activation_steepnesses_count=4
cascade_activation_steepnesses=2.50000000000000000000e-01 5.00000000000000000000e-01 7.50000000000000000000e-01 1.00000000000000000000e+00 
layer_sizes=10 10 2 
scale_included=0
neurons (num_inputs, activation_function, activation_steepness)=(0, 0, 0.00000000000000000000e+00) (0, 0, 0.00000000000000000000e+00) (0, 0, 0.00000000000000000000e+00) (0, 0, 0.00000000000000000000e+00) (0, 0, 0.00000000000000000000e+00) (0, 0, 0.00000000000000000000e+00) (0, 0, 0.00000000000000000000e+00) (0, 0, 0.00000000000000000000e+00) (0, 0, 0.00000000000000000000e+00) (0, 0, 0.00000000000000000000e+00) (10, 0, 5.00000000000000000000e-01) (10, 0, 5.00000000000000000000e-01) (10, 0, 5.00000000000000000000e-01) (10, 0, 5.00000000000000000000e-01) (10, 0, 5.00000000000000000000e-01) (10, 0, 5.00000000000000000000e-01) (10, 0, 5.00000000000000000000e-01) (10, 0, 5.00000000000000000000e-01) (10, 0, 5.00000000000000000000e-01) (0, 0, 0.00000000000000000000e+00) (10, 4, 5.00000000000000000000e-01) (0, 0, 0.00000000000000000000e+00) 
connections (connected_to_neuron, weight)=(0, 6.77181363105773925781e-01) (1, 6.37579560279846191406e-01) (2, 1.59100413322448730469e+00) (3, 1.75662565231323242188e+00) (4, 1.60297894477844238281e+00) (5, 1.62080824375152587891e+00) (6, 1.75190258026123046875e+00) (7, 1.69605565071105957031e+00) (8, 1.73993921279907226562e+00) (9, 6.70971810817718505859e-01) (0, 5.56219339370727539062e-01) (1, 5.43228983879089355469e-01) (2, 1.67328739166259765625e+00) (3, 1.73023974895477294922e+00) (4, 1.71875715255737304688e+00) (5, 1.68367743492126464844e+00) (6, 1.63729071617126464844e+00) (7, 1.62845385074615478516e+00) (8, 1.63588237762451171875e+00) (9, 6.61969602108001708984e-01) (0, 3.56530725955963134766e-01) (1, 3.30278933048248291016e-01) (2, 1.62656152248382568359e+00) (3, 1.70016646385192871094e+00) (4, 1.67996811866760253906e+00) (5, 1.67008018493652343750e+00) (6, 1.72890186309814453125e+00) (7, 1.57636690139770507812e+00) (8, 1.66616988182067871094e+00) (9, 3.24446320533752441406e-01) (0, 3.45332324504852294922e-01) (1, 3.98895233869552612305e-01) (2, 1.71489131450653076172e+00) (3, 1.61508846282958984375e+00) (4, 1.63427281379699707031e+00) (5, 1.74796152114868164062e+00) (6, 1.66598796844482421875e+00) (7, 1.61626672744750976562e+00) (8, 1.67410838603973388672e+00) (9, 3.87357652187347412109e-01) (0, -7.91737914085388183594e-01) (1, -6.48648738861083984375e-01) (2, 1.68345212936401367188e+00) (3, 1.69482183456420898438e+00) (4, 1.69486343860626220703e+00) (5, 1.63230037689208984375e+00) (6, 1.60859048366546630859e+00) (7, 1.76224529743194580078e+00) (8, 1.69084548950195312500e+00) (9, -1.42525351047515869141e+00) (0, -6.54761552810668945312e-01) (1, -6.57052993774414062500e-01) (2, 1.68359494209289550781e+00) (3, 1.58507227897644042969e+00) (4, 1.65638589859008789062e+00) (5, 1.59365427494049072266e+00) (6, 1.68524384498596191406e+00) (7, 1.61537885665893554688e+00) (8, 1.60011243820190429688e+00) (9, -1.51831269264221191406e+00) (0, 3.69916439056396484375e-01) (1, 3.75535964965820312500e-01) (2, 1.65915215015411376953e+00) (3, 1.76355969905853271484e+00) (4, 1.66937637329101562500e+00) (5, 1.72351622581481933594e+00) (6, 1.74161243438720703125e+00) (7, 1.76545548439025878906e+00) (8, 1.76987409591674804688e+00) (9, 3.97151350975036621094e-01) (0, 5.57451725006103515625e-01) (1, 5.17295002937316894531e-01) (2, 1.61043572425842285156e+00) (3, 1.74510848522186279297e+00) (4, 1.71632146835327148438e+00) (5, 1.73539042472839355469e+00) (6, 1.60750007629394531250e+00) (7, 1.75500321388244628906e+00) (8, 1.72772693634033203125e+00) (9, 6.54323279857635498047e-01) (0, -7.23522663116455078125e-01) (1, -6.96943283081054687500e-01) (2, 1.68465614318847656250e+00) (3, 1.57334458827972412109e+00) (4, 1.70140135288238525391e+00) (5, 1.57113313674926757812e+00) (6, 1.59709000587463378906e+00) (7, 1.61673641204833984375e+00) (8, 1.61660337448120117188e+00) (9, -1.47252392768859863281e+00) (10, 7.94219017028808593750e-01) (11, 4.16610985994338989258e-01) (12, 6.07468128204345703125e-01) (13, 6.43462300300598144531e-01) (14, -1.44089484214782714844e+00) (15, -1.51876831054687500000e+00) (16, 5.97069740295410156250e-01) (17, 3.81965577602386474609e-01) (18, -1.52322149276733398438e+00) (19, 1.67114853858947753906e+00) 
