FANN_FLO_2.1
num_layers=3
learning_rate=0.700000
connection_rate=1.000000
network_type=0
learning_momentum=0.000000
training_algorithm=2
train_error_function=1
train_stop_function=0
cascade_output_change_fraction=0.010000
quickprop_decay=-0.000100
quickprop_mu=1.750000
rprop_increase_factor=1.200000
rprop_decrease_factor=0.500000
rprop_delta_min=0.000000
rprop_delta_max=50.000000
rprop_delta_zero=0.100000
cascade_output_stagnation_epochs=12
cascade_candidate_change_fraction=0.010000
cascade_candidate_stagnation_epochs=12
cascade_max_out_epochs=150
cascade_max_cand_epochs=150
cascade_num_candidate_groups=2
bit_fail_limit=3.49999994039535522461e-01
cascade_candidate_limit=1.00000000000000000000e+03
cascade_weight_multiplier=4.00000005960464477539e-01
cascade_activation_functions_count=10
cascade_activation_functions=3 5 7 8 10 11 14 15 16 17 
cascade_activation_steepnesses_count=4
cascade_activation_steepnesses=2.50000000000000000000e-01 5.00000000000000000000e-01 7.50000000000000000000e-01 1.00000000000000000000e+00 
layer_sizes=10 10 2 
scale_included=0
neurons (num_inputs, activation_function, activation_steepness)=(0, 0, 0.00000000000000000000e+00) (0, 0, 0.00000000000000000000e+00) (0, 0, 0.00000000000000000000e+00) (0, 0, 0.00000000000000000000e+00) (0, 0, 0.00000000000000000000e+00) (0, 0, 0.00000000000000000000e+00) (0, 0, 0.00000000000000000000e+00) (0, 0, 0.00000000000000000000e+00) (0, 0, 0.00000000000000000000e+00) (0, 0, 0.00000000000000000000e+00) (10, 0, 5.00000000000000000000e-01) (10, 0, 5.00000000000000000000e-01) (10, 0, 5.00000000000000000000e-01) (10, 0, 5.00000000000000000000e-01) (10, 0, 5.00000000000000000000e-01) (10, 0, 5.00000000000000000000e-01) (10, 0, 5.00000000000000000000e-01) (10, 0, 5.00000000000000000000e-01) (10, 0, 5.00000000000000000000e-01) (0, 0, 0.00000000000000000000e+00) (10, 4, 5.00000000000000000000e-01) (0, 0, 0.00000000000000000000e+00) 
connections (connected_to_neuron, weight)=(0, 2.62160748243331909180e-01) (1, 1.62051126360893249512e-01) (2, 1.12845122814178466797e+00) (3, 1.23826837539672851562e+00) (4, 1.10626530647277832031e+00) (5, 1.20789694786071777344e+00) (6, 1.19817113876342773438e+00) (7, 1.25227928161621093750e+00) (8, 1.27270030975341796875e+00) (9, 1.66369795799255371094e-01) (0, 1.11764407157897949219e+00) (1, 1.27630507946014404297e+00) (2, 1.12808239459991455078e+00) (3, 1.13710379600524902344e+00) (4, 1.17259931564331054688e+00) (5, 1.19678378105163574219e+00) (6, 1.21625530719757080078e+00) (7, 1.09596455097198486328e+00) (8, 1.12108910083770751953e+00) (9, 1.22765564918518066406e+00) (0, 3.93964499235153198242e-01) (1, 2.78970539569854736328e-01) (2, 1.14247977733612060547e+00) (3, 1.11488473415374755859e+00) (4, 1.13531804084777832031e+00) (5, 1.09238243103027343750e+00) (6, 1.21876883506774902344e+00) (7, 1.10324561595916748047e+00) (8, 1.17256283760070800781e+00) (9, 3.71162205934524536133e-01) (0, 2.44864553213119506836e-01) (1, 1.43132925033569335938e-01) (2, 1.25926780700683593750e+00) (3, 1.23427581787109375000e+00) (4, 1.24236130714416503906e+00) (5, 1.27394247055053710938e+00) (6, 1.15058207511901855469e+00) (7, 1.14894199371337890625e+00) (8, 1.23463118076324462891e+00) (9, 1.79141223430633544922e-01) (0, -6.09712421894073486328e-01) (1, -5.25299489498138427734e-01) (2, 1.11640632152557373047e+00) (3, 1.21276354789733886719e+00) (4, 1.10619783401489257812e+00) (5, 1.19741511344909667969e+00) (6, 1.11795687675476074219e+00) (7, 1.23086261749267578125e+00) (8, 1.20178914070129394531e+00) (9, -1.23572587966918945312e+00) (0, -6.19056522846221923828e-01) (1, -6.16726696491241455078e-01) (2, 1.19992983341217041016e+00) (3, 1.21781682968139648438e+00) (4, 1.19255161285400390625e+00) (5, 1.24365723133087158203e+00) (6, 1.21860885620117187500e+00) (7, 1.11972987651824951172e+00) (8, 1.25531220436096191406e+00) (9, -1.28360009193420410156e+00) (0, 1.26439595222473144531e+00) (1, 1.16113686561584472656e+00) (2, 1.10367393493652343750e+00) (3, 1.23207330703735351562e+00) (4, 1.10382199287414550781e+00) (5, 1.25444459915161132812e+00) (6, 1.21442520618438720703e+00) (7, 1.16281342506408691406e+00) (8, 1.11179614067077636719e+00) (9, 1.15746581554412841797e+00) (0, 1.20291471481323242188e+00) (1, 1.19647729396820068359e+00) (2, 1.12655997276306152344e+00) (3, 1.22773039340972900391e+00) (4, 1.11765038967132568359e+00) (5, 1.14116716384887695312e+00) (6, 1.13355493545532226562e+00) (7, 1.14401662349700927734e+00) (8, 1.28043925762176513672e+00) (9, 1.24375343322753906250e+00) (0, 3.34786832332611083984e-01) (1, 2.90681868791580200195e-01) (2, 1.12142050266265869141e+00) (3, 1.10822057723999023438e+00) (4, 1.28200268745422363281e+00) (5, 1.22238159179687500000e+00) (6, 1.26028728485107421875e+00) (7, 1.20902097225189208984e+00) (8, 1.25052094459533691406e+00) (9, 3.58914494514465332031e-01) (10, 3.51916819810867309570e-01) (11, 1.22332632541656494141e+00) (12, 1.41004666686058044434e-01) (13, 3.64000141620635986328e-01) (14, -1.21937203407287597656e+00) (15, -1.27739453315734863281e+00) (16, 1.19194865226745605469e+00) (17, 1.28664374351501464844e+00) (18, 2.24458977580070495605e-01) (19, 1.21215426921844482422e+00) 
