FANN_FLO_2.1
num_layers=3
learning_rate=0.700000
connection_rate=1.000000
network_type=0
learning_momentum=0.000000
training_algorithm=2
train_error_function=1
train_stop_function=0
cascade_output_change_fraction=0.010000
quickprop_decay=-0.000100
quickprop_mu=1.750000
rprop_increase_factor=1.200000
rprop_decrease_factor=0.500000
rprop_delta_min=0.000000
rprop_delta_max=50.000000
rprop_delta_zero=0.100000
cascade_output_stagnation_epochs=12
cascade_candidate_change_fraction=0.010000
cascade_candidate_stagnation_epochs=12
cascade_max_out_epochs=150
cascade_max_cand_epochs=150
cascade_num_candidate_groups=2
bit_fail_limit=3.49999994039535522461e-01
cascade_candidate_limit=1.00000000000000000000e+03
cascade_weight_multiplier=4.00000005960464477539e-01
cascade_activation_functions_count=10
cascade_activation_functions=3 5 7 8 10 11 14 15 16 17 
cascade_activation_steepnesses_count=4
cascade_activation_steepnesses=2.50000000000000000000e-01 5.00000000000000000000e-01 7.50000000000000000000e-01 1.00000000000000000000e+00 
layer_sizes=10 10 2 
scale_included=0
neurons (num_inputs, activation_function, activation_steepness)=(0, 0, 0.00000000000000000000e+00) (0, 0, 0.00000000000000000000e+00) (0, 0, 0.00000000000000000000e+00) (0, 0, 0.00000000000000000000e+00) (0, 0, 0.00000000000000000000e+00) (0, 0, 0.00000000000000000000e+00) (0, 0, 0.00000000000000000000e+00) (0, 0, 0.00000000000000000000e+00) (0, 0, 0.00000000000000000000e+00) (0, 0, 0.00000000000000000000e+00) (10, 0, 5.00000000000000000000e-01) (10, 0, 5.00000000000000000000e-01) (10, 0, 5.00000000000000000000e-01) (10, 0, 5.00000000000000000000e-01) (10, 0, 5.00000000000000000000e-01) (10, 0, 5.00000000000000000000e-01) (10, 0, 5.00000000000000000000e-01) (10, 0, 5.00000000000000000000e-01) (10, 0, 5.00000000000000000000e-01) (0, 0, 0.00000000000000000000e+00) (10, 4, 5.00000000000000000000e-01) (0, 0, 0.00000000000000000000e+00) 
connections (connected_to_neuron, weight)=(0, 5.57181358337402343750e-01) (1, 5.17579555511474609375e-01) (2, 1.47100412845611572266e+00) (3, 1.63662564754486083984e+00) (4, 1.48297894001007080078e+00) (5, 1.50080823898315429688e+00) (6, 1.63190257549285888672e+00) (7, 1.57605564594268798828e+00) (8, 1.61993920803070068359e+00) (9, 5.50971806049346923828e-01) (0, 4.36219364404678344727e-01) (1, 4.23228949308395385742e-01) (2, 1.55328738689422607422e+00) (3, 1.61023974418640136719e+00) (4, 1.59875714778900146484e+00) (5, 1.56367743015289306641e+00) (6, 1.51729071140289306641e+00) (7, 1.50845384597778320312e+00) (8, 1.51588237285614013672e+00) (9, 5.41969597339630126953e-01) (0, 2.36530721187591552734e-01) (1, 2.10278928279876708984e-01) (2, 1.50656151771545410156e+00) (3, 1.58016645908355712891e+00) (4, 1.55996811389923095703e+00) (5, 1.55008018016815185547e+00) (6, 1.60890185832977294922e+00) (7, 1.45636689662933349609e+00) (8, 1.54616987705230712891e+00) (9, 2.04446300864219665527e-01) (0, 2.25332319736480712891e-01) (1, 2.78895229101181030273e-01) (2, 1.59489130973815917969e+00) (3, 1.49508845806121826172e+00) (4, 1.51427280902862548828e+00) (5, 1.62796151638031005859e+00) (6, 1.54598796367645263672e+00) (7, 1.49626672267913818359e+00) (8, 1.55410838127136230469e+00) (9, 2.67357647418975830078e-01) (0, -9.11737918853759765625e-01) (1, -7.68648743629455566406e-01) (2, 1.56345212459564208984e+00) (3, 1.57482182979583740234e+00) (4, 1.57486343383789062500e+00) (5, 1.51230037212371826172e+00) (6, 1.48859047889709472656e+00) (7, 1.64224529266357421875e+00) (8, 1.57084548473358154297e+00) (9, -1.54525351524353027344e+00) (0, -7.74761557579040527344e-01) (1, -7.77052998542785644531e-01) (2, 1.56359493732452392578e+00) (3, 1.46507227420806884766e+00) (4, 1.53638589382171630859e+00) (5, 1.47365427017211914062e+00) (6, 1.56524384021759033203e+00) (7, 1.49537885189056396484e+00) (8, 1.48011243343353271484e+00) (9, -1.63831269741058349609e+00) (0, 2.49916434288024902344e-01) (1, 2.55535960197448730469e-01) (2, 1.53915214538574218750e+00) (3, 1.64355969429016113281e+00) (4, 1.54937636852264404297e+00) (5, 1.60351622104644775391e+00) (6, 1.62161242961883544922e+00) (7, 1.64545547962188720703e+00) (8, 1.64987409114837646484e+00) (9, 2.77151346206665039062e-01) (0, 4.37451690435409545898e-01) (1, 3.97294998168945312500e-01) (2, 1.49043571949005126953e+00) (3, 1.62510848045349121094e+00) (4, 1.59632146358489990234e+00) (5, 1.61539041996002197266e+00) (6, 1.48750007152557373047e+00) (7, 1.63500320911407470703e+00) (8, 1.60772693157196044922e+00) (9, 5.34323275089263916016e-01) (0, -8.43522667884826660156e-01) (1, -8.16943287849426269531e-01) (2, 1.56465613842010498047e+00) (3, 1.45334458351135253906e+00) (4, 1.58140134811401367188e+00) (5, 1.45113313198089599609e+00) (6, 1.47709000110626220703e+00) (7, 1.49673640727996826172e+00) (8, 1.49660336971282958984e+00) (9, -1.59252393245697021484e+00) (10, 6.74219012260437011719e-01) (11, 2.96610981225967407227e-01) (12, 4.87468123435974121094e-01) (13, 5.23462295532226562500e-01) (14, -1.56089484691619873047e+00) (15, -1.63876831531524658203e+00) (16, 4.77069705724716186523e-01) (17, 2.61965572834014892578e-01) (18, -1.64322149753570556641e+00) (19, 1.55114853382110595703e+00) 
