FANN_FLO_2.1
num_layers=3
learning_rate=0.700000
connection_rate=1.000000
network_type=0
learning_momentum=0.000000
training_algorithm=2
train_error_function=1
train_stop_function=0
cascade_output_change_fraction=0.010000
quickprop_decay=-0.000100
quickprop_mu=1.750000
rprop_increase_factor=1.200000
rprop_decrease_factor=0.500000
rprop_delta_min=0.000000
rprop_delta_max=50.000000
rprop_delta_zero=0.100000
cascade_output_stagnation_epochs=12
cascade_candidate_change_fraction=0.010000
cascade_candidate_stagnation_epochs=12
cascade_max_out_epochs=150
cascade_max_cand_epochs=150
cascade_num_candidate_groups=2
bit_fail_limit=3.49999994039535522461e-01
cascade_candidate_limit=1.00000000000000000000e+03
cascade_weight_multiplier=4.00000005960464477539e-01
cascade_activation_functions_count=10
cascade_activation_functions=3 5 7 8 10 11 14 15 16 17 
cascade_activation_steepnesses_count=4
cascade_activation_steepnesses=2.50000000000000000000e-01 5.00000000000000000000e-01 7.50000000000000000000e-01 1.00000000000000000000e+00 
layer_sizes=10 10 2 
scale_included=0
neurons (num_inputs, activation_function, activation_steepness)=(0, 0, 0.00000000000000000000e+00) (0, 0, 0.00000000000000000000e+00) (0, 0, 0.00000000000000000000e+00) (0, 0, 0.00000000000000000000e+00) (0, 0, 0.00000000000000000000e+00) (0, 0, 0.00000000000000000000e+00) (0, 0, 0.00000000000000000000e+00) (0, 0, 0.00000000000000000000e+00) (0, 0, 0.00000000000000000000e+00) (0, 0, 0.00000000000000000000e+00) (10, 0, 5.00000000000000000000e-01) (10, 0, 5.00000000000000000000e-01) (10, 0, 5.00000000000000000000e-01) (10, 0, 5.00000000000000000000e-01) (10, 0, 5.00000000000000000000e-01) (10, 0, 5.00000000000000000000e-01) (10, 0, 5.00000000000000000000e-01) (10, 0, 5.00000000000000000000e-01) (10, 0, 5.00000000000000000000e-01) (0, 0, 0.00000000000000000000e+00) (10, 4, 5.00000000000000000000e-01) (0, 0, 0.00000000000000000000e+00) 
connections (connected_to_neuron, weight)=(0, 1.23147225379943847656e+00) (1, 1.23597073554992675781e+00) (2, 1.17815375328063964844e+00) (3, 1.20125865936279296875e+00) (4, 1.24350500106811523438e+00) (5, 1.19357872009277343750e+00) (6, 1.11454153060913085938e+00) (7, 1.17008745670318603516e+00) (8, 1.28464078903198242188e+00) (9, 1.16285848617553710938e+00) (0, 4.24737870693206787109e-01) (1, 3.94152522087097167969e-01) (2, 1.19346761703491210938e+00) (3, 1.21995377540588378906e+00) (4, 1.13574314117431640625e+00) (5, 1.14391291141510009766e+00) (6, 1.26541888713836669922e+00) (7, 1.15192472934722900391e+00) (8, 1.22562265396118164062e+00) (9, 2.84429371356964111328e-01) (0, 1.17161333560943603516e+00) (1, 1.11215424537658691406e+00) (2, 1.28700280189514160156e+00) (3, 1.22689771652221679688e+00) (4, 1.12287783622741699219e+00) (5, 1.15295171737670898438e+00) (6, 1.12090158462524414062e+00) (7, 1.25336909294128417969e+00) (8, 1.19791436195373535156e+00) (9, 1.25638270378112792969e+00) (0, -1.20836830139160156250e+00) (1, -6.48188173770904541016e-01) (2, 1.20076286792755126953e+00) (3, 1.26137590408325195312e+00) (4, 1.24746417999267578125e+00) (5, 1.15267729759216308594e+00) (6, 1.16336393356323242188e+00) (7, 1.27041518688201904297e+00) (8, 1.23117411136627197266e+00) (9, -1.22676682472229003906e+00) (0, 1.14168310165405273438e+00) (1, 1.22941589355468750000e+00) (2, 1.12407076358795166016e+00) (3, 1.24356007575988769531e+00) (4, 1.15777909755706787109e+00) (5, 1.16822326183319091797e+00) (6, 1.09588241577148437500e+00) (7, 1.13160741329193115234e+00) (8, 1.22855734825134277344e+00) (9, 1.22991454601287841797e+00) (0, 2.36990213394165039062e-01) (1, 1.56029582023620605469e-01) (2, 1.25047826766967773438e+00) (3, 1.18495297431945800781e+00) (4, 1.24388730525970458984e+00) (5, 1.28176546096801757812e+00) (6, 1.24631404876708984375e+00) (7, 1.27319824695587158203e+00) (8, 1.24354410171508789062e+00) (9, 2.00087219476699829102e-01) (0, -1.14519083499908447266e+00) (1, -6.59217953681945800781e-01) (2, 1.19884324073791503906e+00) (3, 1.14716267585754394531e+00) (4, 1.09655153751373291016e+00) (5, 1.15471696853637695312e+00) (6, 1.20824933052062988281e+00) (7, 1.16832494735717773438e+00) (8, 1.13354146480560302734e+00) (9, -1.23534834384918212891e+00) (0, 3.68054151535034179688e-01) (1, 3.18539530038833618164e-01) (2, 1.28565812110900878906e+00) (3, 1.26562881469726562500e+00) (4, 1.13560366630554199219e+00) (5, 1.15184664726257324219e+00) (6, 1.14226150512695312500e+00) (7, 1.13989555835723876953e+00) (8, 1.19186353683471679688e+00) (9, 4.14133846759796142578e-01) (0, 4.13125008344650268555e-01) (1, 4.24719274044036865234e-01) (2, 1.09621787071228027344e+00) (3, 1.23710715770721435547e+00) (4, 1.18317627906799316406e+00) (5, 1.24851465225219726562e+00) (6, 1.22728204727172851562e+00) (7, 1.13789963722229003906e+00) (8, 1.23012232780456542969e+00) (9, 3.14141035079956054688e-01) (10, 1.19894695281982421875e+00) (11, 2.23971575498580932617e-01) (12, 1.21441125869750976562e+00) (13, -1.27698159217834472656e+00) (14, 1.23209416866302490234e+00) (15, 3.54277700185775756836e-01) (16, -1.21385526657104492188e+00) (17, 1.96202307939529418945e-01) (18, 1.43556058406829833984e-01) (19, 1.21127676963806152344e+00) 
